-0.439663    0.299962    0.018593    -0.530628    0.390188    -0.023148    -0.421587    -0.556589    
0.389385    -0.361518    -0.399951    0.419356    -0.337296    -0.473933    -0.308688    0.414981    
0.484945    -0.498688    -0.618643    0.360764    -0.378038    -0.515837    -1.062592    0.366189    
1.306982    -1.486291    -1.380020    0.394011    -1.332761    -1.086896    -1.940225    0.408010    
-0.918266    1.096452    1.215005    0.709730    0.738889    0.825764    2.479187    0.786773    
0.770527    -0.855924    -0.814870    0.303142    -0.770386    -0.642477    0.893514    0.298185    
-0.604133    0.557470    0.493377    0.700489    0.565942    0.458550    -0.934336    0.837901    
0.291066    -0.272030    0.040820    -0.646513    -0.497045    0.077102    2.941989    -0.637214    
-0.326744    0.304678    0.237679    0.387690    0.258674    0.105007    0.255170    0.446328    
-0.341833    0.211168    0.121109    -0.424884    0.223024    0.249009    -2.152543    -0.489724    
-0.229684    0.181068    0.020352    1.105096    0.261197    0.008914    -2.014227    1.239872    
0.179769    -0.303400    -0.383186    0.335420    -0.189077    -0.312282    -1.498560    0.385318    
-0.338714    0.213568    0.090403    1.562833    0.317489    0.098193    0.062538    1.684430    
0.464212    -0.406943    -0.370401    0.719648    -0.380616    -0.305780    -0.400881    0.769351    
0.013462    0.009536    0.003135    0.002915    0.013388    0.007787    0.002549    0.008256    
0.994495    -1.005867    -0.828578    -0.410954    -0.991428    -0.634546    1.267524    -0.437715    
-0.722910    0.887537    0.867739    0.843751    0.596035    0.495653    1.607065    0.925046    
-0.281064    0.285203    0.265844    0.969942    0.238802    0.099714    0.743599    1.073555    
-1.797466    1.813217    1.466878    1.273424    1.634432    0.932220    1.375225    1.422767    
-0.819707    0.727616    0.651787    0.272096    0.613868    0.472638    1.269928    0.248528    
-1.926660    2.104271    1.919357    0.579036    1.859926    1.274703    -0.176232    0.601444    
0.005456    0.022326    -0.372764    0.326576    -0.309026    0.255308    -0.706318    -0.727076    
-0.416874    -0.409724    -0.462655    -0.304534    0.288862    -0.301399    0.121027    0.110162    
-0.559609    -0.581330    -0.827237    -0.624492    -0.814418    -0.633132    0.154908    0.146922    
-1.072046    -1.130590    -2.080106    -1.615321    0.440504    -1.559942    0.298915    0.337581    
0.798170    0.877987    2.447361    1.309404    0.878452    1.310108    0.490945    0.578126    
-0.610042    -0.632482    0.643675    -0.829151    0.570476    -0.809162    0.191753    0.194530    
0.703965    0.710700    -0.905561    0.768928    0.092322    0.750638    1.104216    1.292681    
-0.050911    -0.051387    2.723754    -0.099024    1.306307    -0.050809    -0.746755    -0.726395    
0.339866    0.355201    0.329829    0.348304    0.035536    0.354761    0.649226    0.707134    
-0.048809    -0.062251    -2.194011    0.043135    -1.349196    0.016341    -0.627431    -0.710640    
0.006567    0.002538    -1.793469    0.096958    -1.580950    0.056029    1.106538    1.255835    
-0.310636    -0.322187    -1.354557    -0.412544    -1.220893    -0.422528    0.426855    0.499924    
0.054242    0.044903    0.081281    0.111518    -0.352905    0.062345    1.545072    1.672790    
-0.332901    -0.342046    -0.412147    -0.386542    -0.286121    -0.381516    0.647169    0.713342    
0.012091    0.005143    0.013544    0.015713    0.014309    0.011879    0.004916    0.015466    
-0.735876    -0.775459    1.194021    -1.098160    0.964260    -1.026180    -0.490821    -0.507161    
0.695138    0.759667    1.613074    1.158870    1.145903    1.127136    0.917361    1.026630    
0.160198    0.179581    0.980680    0.254009    -1.446272    0.266672    0.934652    1.082855    
1.123812    1.209470    1.573607    1.964965    -0.246269    1.862681    1.253113    1.397316    
0.513198    0.543611    1.462780    0.795456    0.059580    0.777361    0.217225    0.194546    
1.479409    1.600989    -0.196444    2.445838    -0.975095    2.344957    0.509254    0.518493    
0.144313    -0.958606    0.272731    -0.544865    -0.331903    0.229181    -0.427957    -0.013020    
-0.339878    0.254037    -0.194319    -0.231660    0.256673    -0.310650    -0.338433    -0.339082    
-0.519957    0.024370    0.460338    -0.297007    0.576792    -0.519992    -0.972010    -0.175228    
-1.292454    0.702348    -0.753992    0.484626    1.782804    -1.391905    -1.985789    -0.686400    
1.053466    0.937073    -0.824285    0.049699    -1.634371    1.129867    2.520075    0.242280    
-0.755559    0.091261    -0.020061    0.293661    1.053562    -0.792325    0.740070    -0.453867    
0.617879    1.350172    0.385112    0.243997    -0.731065    0.627574    -0.980887    0.613244    
0.010436    -0.120122    -1.116668    -1.399950    -0.094442    -0.013663    2.779998    -0.071328    
0.329265    0.921218    0.312017    0.281859    -0.351919    0.326635    0.413516    0.270427    
0.061980    -1.130430    -0.107715    -0.240305    -0.197431    0.114029    -2.336647    0.110459    
0.126574    1.539582    0.254824    0.141065    -0.206588    0.158748    -2.071147    0.122458    
-0.218137    0.661599    0.234523    -0.267589    0.299244    -0.225467    -1.726681    -0.057506    
0.032829    1.615052    0.543794    1.220220    -0.078968    0.071052    0.209053    0.124124    
-0.282680    0.701582    -0.298992    0.203678    0.407478    -0.284103    -0.451874    -0.184127    
0.010559    0.011576    0.001400    0.009043    0.015530    0.000963    0.004505    0.002379    
-0.917771    -0.672189    -0.773737    -0.728636    1.286643    -1.001099    1.254098    -0.577244    
0.845604    1.093657    -1.034612    0.743523    -1.271621    0.904746    1.631597    0.082092    
0.195586    1.274300    0.307567    0.827780    -0.410157    0.202290    0.782900    0.102674    
1.561809    1.531356    0.273488    0.625872    -2.352665    1.727249    1.693029    0.624937    
0.618864    0.185079    0.361651    0.930619    -1.045791    0.686402    1.616693    0.248421    
1.859453    0.314119    0.494569    0.552282    -2.733700    2.012447    -0.292419    0.723157    
-0.308666    -0.228846    -0.923582    0.256497    -0.457402    -0.821433    0.433496    -0.173304    
-0.438327    0.392166    0.197905    -0.430084    -0.288414    0.119486    -0.385217    0.104948    
-0.181012    0.513382    0.119635    -0.476384    -1.014406    0.092300    -0.468757    -0.016260    
-0.001781    1.591165    0.368739    -1.568332    -1.889861    0.243178    -1.817020    0.082174    
-0.248782    -1.314700    0.798418    1.152664    2.538249    0.567556    1.344029    0.156939    
0.333836    0.919781    0.106866    -0.850115    0.800527    0.104534    -0.980141    -0.080622    
0.261243    -0.758485    1.264923    0.719513    -1.083000    1.055103    0.753075    0.000293    
-1.693902    -0.063735    -0.209585    -0.079949    2.916411    -0.431599    -0.139812    0.021674    
0.119435    -0.418605    0.787263    0.375996    0.358376    0.629807    0.346578    0.022850    
-0.204751    0.006878    -1.096239    -0.024775    -2.299674    -0.852668    0.016634    0.059673    
0.218593    -0.088928    1.444041    0.144171    -2.045819    1.107569    0.204885    0.034788    
-0.185445    0.314717    0.658336    -0.264145    -1.709633    0.477970    -0.289350    0.032389    
1.110560    -0.033369    1.379380    0.020460    0.138991    1.259378    0.091821    0.082383    
0.103142    0.466949    0.608219    -0.385826    -0.435253    0.516617    -0.419180    0.081088    
0.014148    0.006337    0.005020    0.004657    0.000438    0.010036    0.006409    0.000305    
-0.639033    1.038269    -0.498981    -0.992171    1.277356    -0.504716    -1.206694    -0.004614    
0.559688    -1.064287    0.946179    0.975895    1.702357    0.820990    1.177475    0.099254    
0.705674    -0.376312    1.008835    0.251177    0.763940    0.802433    0.272234    0.044179    
0.466541    -1.859850    1.394103    1.721352    1.669670    1.204223    2.158857    0.129376    
0.856171    -0.904694    0.092088    0.731676    1.454481    0.208617    0.839349    -0.047546    
0.426478    -2.284739    0.064841    2.106959    -0.270815    0.101360    2.600278    0.114061    
-0.188732    0.266554    -0.375429    -0.122207    0.456659    0.451144    -0.701384    -0.736255    
-0.101711    -0.527716    0.361301    -0.260567    -0.544155    -0.532532    -0.202979    -0.151609    
-0.339532    -0.522448    -0.290380    -0.391070    -0.659700    -0.618164    -0.349805    -0.451353    
1.015676    -1.108358    0.780681    -0.190089    -1.458507    -1.376241    0.442410    0.738761    
1.549056    0.504739    0.780401    1.826482    0.749831    0.602929    0.252577    0.525022    
-0.443135    -0.189904    -0.522413    -0.235949    -0.230514    -0.191552    -0.021468    -0.059103    
-0.878851    0.785544    -0.204511    -0.680649    0.988620    0.970075    -0.108322    -0.219544    
1.829652    -0.227905    0.597730    2.047400    -0.360956    -0.386449    -1.546236    -1.381008    
-0.077155    0.132567    0.095372    0.022638    0.300435    0.263330    -0.387053    -0.303773    
-1.727949    0.612859    0.013253    -2.276777    0.821181    0.839436    1.173146    1.122331    
-2.011280    0.542722    -0.111588    -2.415496    0.721901    0.759922    1.780126    1.848791    
-1.484819    0.141651    0.024682    -1.634583    0.202812    0.245381    1.102228    1.140535    
-0.124302    0.046442    0.045637    -0.058798    -0.006538    0.033761    0.720012    0.790505    
-0.276851    -0.031443    0.085246    -0.264194    -0.078559    -0.042588    0.727266    0.807525    
0.011659    0.016363    0.012706    0.010512    0.010178    0.015501    0.011275    0.004748    
1.284926    -0.572330    0.122355    1.433881    -0.786563    -0.766519    -0.862471    -0.857009    
1.839152    0.625536    0.675619    1.825027    0.975621    0.845321    1.234075    1.486659    
-1.649723    0.122520    0.010806    -0.961483    0.265722    0.270684    1.858037    2.136339    
-0.108834    1.160343    0.401657    0.282424    1.768990    1.629815    0.573037    0.713223    
0.784603    -0.116498    -0.005068    1.061647    0.010279    -0.054872    -0.012927    0.079310    
-1.834292    1.806393    -0.159772    -2.255709    2.612265    2.476848    1.319801    1.351864    
-0.116647    -0.741382    0.408095    -0.049962    0.145020    0.207249    -0.537215    -0.731658    
-0.287179    0.112235    -0.332100    0.677633    -0.339552    -0.319340    -0.599118    0.112381    
-0.405306    0.040709    -0.690276    -0.838776    -0.710569    -0.721377    -0.841822    0.014616    
-0.549032    0.172936    -1.464702    0.495522    -1.260776    -1.336364    -1.471465    0.161307    
0.361234    0.497930    1.176543    1.188283    1.135228    1.206894    2.028430    0.450429    
-0.383224    0.234460    -0.657982    0.731490    -0.586619    -0.600047    0.577645    0.211430    
0.709780    1.262216    0.872557    0.722171    0.770901    0.781198    -1.083880    1.165204    
-0.143050    -0.643132    -0.302242    1.138700    -0.102926    -0.104880    2.794977    -0.726811    
0.255670    0.658859    0.288079    0.308827    0.331509    0.317933    0.050604    0.619056    
0.026881    -0.882265    0.047428    -2.145400    -0.075246    -0.038500    -2.029504    -0.817524    
-0.069677    1.367011    0.056482    -2.467700    -0.057887    -0.062327    -1.359344    1.252743    
-0.273521    0.453687    -0.388736    -1.960337    -0.426853    -0.438204    -0.934327    0.391626    
0.008574    1.414908    0.221996    -0.309285    0.055693    0.072927    -0.090152    1.340965    
-0.320507    0.610794    -0.428005    -0.581222    -0.392088    -0.398868    -0.383320    0.544434    
0.014325    0.001299    0.001654    0.002347    0.002343    0.015040    0.005058    0.006124    
-0.470261    -0.491803    -1.060772    1.008065    -0.838162    -0.892526    1.061689    -0.489827    
0.330745    1.018520    1.128608    1.464552    1.010832    1.072757    0.965009    0.954702    
-0.175787    0.754724    0.029510    -1.631654    0.080626    0.078061    0.485975    0.673084    
0.632492    1.284925    1.976422    0.659804    1.565245    1.697012    0.594410    1.217886    
0.208827    0.119851    0.736581    0.370235    0.644645    0.672962    1.048274    0.169223    
0.744765    0.273100    2.353208    -0.759434    1.991240    2.129314    -0.073570    0.297281    
-0.516447    -0.814617    -0.599378    -0.236557    -0.432089    -0.813323    -0.817843    -0.212803    
0.357781    0.027120    -0.269936    0.541064    0.376946    0.040529    0.082026    -0.346523    
0.479752    0.089348    -1.018739    0.355372    0.504915    0.092525    0.102313    -0.228023    
2.029426    0.064380    -1.248588    0.988132    1.831082    0.064322    0.115138    0.050940    
-1.653638    0.821394    2.453844    -0.505969    -1.482879    0.823228    0.889180    0.035640    
0.799222    0.432106    0.915031    0.306045    0.689366    0.434017    0.416202    0.527623    
-0.647031    1.305410    -0.729309    -0.566545    -0.589079    1.286040    1.267506    0.199391    
0.099031    -0.712693    2.912237    -0.125894    0.060326    -0.687169    -0.644000    -1.756873    
-0.277281    0.511979    0.228500    -0.121428    -0.251876    0.513142    0.520054    -0.047912    
-0.037884    -0.775731    -2.383431    -0.214980    -0.030701    -0.775695    -0.769223    0.081819    
-0.018840    1.373545    -1.993427    0.015293    0.017396    1.393745    1.388535    0.153433    
0.521136    0.660962    -1.715534    0.198741    0.477028    0.658964    0.663395    -0.349785    
0.119081    1.575777    0.277091    -0.023030    0.107270    1.576991    1.602465    1.270213    
0.570317    0.537554    -0.252252    0.402267    0.545009    0.544047    0.564945    0.111677    
0.012804    0.015284    0.009640    0.003543    0.004576    0.009187    0.014326    0.004097    
1.100759    -0.526339    1.162198    0.500300    0.959054    -0.523224    -0.521679    -0.580327    
-1.404956    1.150513    2.015132    -0.242912    -1.223582    1.126829    1.123555    0.718697    
-0.205461    1.058395    0.225229    0.021145    -0.118684    1.033741    1.051806    0.670373    
-2.292852    1.628766    1.171536    -0.724067    -2.018796    1.616256    1.649272    0.665394    
-0.899270    0.319829    1.563119    -0.448767    -0.822197    0.300809    0.300142    0.959380    
-2.992445    -0.097921    -0.133767    -0.863019    -2.635574    -0.110390    -0.067005    0.482138    
